digraph Tree {
node [shape=box, style="filled, rounded", color="black", fontname=helvetica] ;
edge [fontname=helvetica] ;
0 [label="exercise_induced_angina_yes <= 0.5\ngini = 0.49\nsamples = 100.0%\nvalue = [0.45, 0.55]\nclass = disease", fillcolor="#d9ecfa"] ;
1 [label="thalassemia_reversable defect <= 0.5\n0.4\n69.1%\n[0.28, 0.72]\ndisease", fillcolor="#85c3ef"] ;
0 -> 1 [labeldistance=2.5, labelangle=45, headlabel="True"] ;
2 [label="age <= 58.5\n0.32\n51.7%\n[0.2, 0.8]\ndisease", fillcolor="#6ab5eb"] ;
1 -> 2 ;
3 [label="max_heart_rate_achieved <= 147.5\n0.17\n34.2%\n[0.09, 0.91]\ndisease", fillcolor="#4da7e8"] ;
2 -> 3 ;
4 [label="max_heart_rate_achieved <= 124.0\n0.5\n4.0%\n[0.5, 0.5]\nno disease", fillcolor="#ffffff"] ;
3 -> 4 ;
5 [label="0.0\n1.3%\n[0.0, 1.0]\ndisease", fillcolor="#399de5"] ;
4 -> 5 ;
6 [label="num_major_vessels <= 2.0\n0.38\n2.7%\n[0.75, 0.25]\nno disease", fillcolor="#eeab7b"] ;
4 -> 6 ;
7 [label="st_slope_upsloping <= 0.5\n0.48\n2.0%\n[0.6, 0.4]\nno disease", fillcolor="#f6d5bd"] ;
6 -> 7 ;
8 [label="0.0\n1.3%\n[0.0, 1.0]\ndisease", fillcolor="#399de5"] ;
7 -> 8 ;
9 [label="0.0\n0.7%\n[1.0, 0.0]\nno disease", fillcolor="#e58139"] ;
7 -> 9 ;
10 [label="0.0\n0.7%\n[1.0, 0.0]\nno disease", fillcolor="#e58139"] ;
6 -> 10 ;
11 [label="cholesterol <= 283.5\n0.05\n30.2%\n[0.03, 0.97]\ndisease", fillcolor="#3ea0e6"] ;
3 -> 11 ;
12 [label="0.0\n24.2%\n[0.0, 1.0]\ndisease", fillcolor="#399de5"] ;
11 -> 12 ;
13 [label="fasting_blood_sugar_greater than 120 mg/ml <= 0.5\n0.24\n6.0%\n[0.14, 0.86]\ndisease", fillcolor="#5aade9"] ;
11 -> 13 ;
14 [label="max_heart_rate_achieved <= 161.5\n0.14\n5.4%\n[0.08, 0.92]\ndisease", fillcolor="#49a5e7"] ;
13 -> 14 ;
15 [label="age <= 57.0\n0.5\n1.3%\n[0.5, 0.5]\nno disease", fillcolor="#ffffff"] ;
14 -> 15 ;
16 [label="0.0\n0.7%\n[0.0, 1.0]\ndisease", fillcolor="#399de5"] ;
15 -> 16 ;
17 [label="0.0\n0.7%\n[1.0, 0.0]\nno disease", fillcolor="#e58139"] ;
15 -> 17 ;
18 [label="0.0\n4.0%\n[0.0, 1.0]\ndisease", fillcolor="#399de5"] ;
14 -> 18 ;
19 [label="0.0\n0.7%\n[1.0, 0.0]\nno disease", fillcolor="#e58139"] ;
13 -> 19 ;
20 [label="st_depression <= 2.35\n0.49\n17.4%\n[0.44, 0.56]\ndisease", fillcolor="#d2e9f9"] ;
2 -> 20 ;
21 [label="chest_pain_type_typical angina <= 0.5\n0.44\n15.4%\n[0.33, 0.67]\ndisease", fillcolor="#9ccef2"] ;
20 -> 21 ;
22 [label="num_major_vessels <= 0.5\n0.47\n13.4%\n[0.38, 0.62]\ndisease", fillcolor="#b2d9f5"] ;
21 -> 22 ;
23 [label="max_heart_rate_achieved <= 166.0\n0.39\n8.7%\n[0.26, 0.74]\ndisease", fillcolor="#80c0ee"] ;
22 -> 23 ;
24 [label="max_heart_rate_achieved <= 83.5\n0.3\n7.4%\n[0.19, 0.81]\ndisease", fillcolor="#67b4eb"] ;
23 -> 24 ;
25 [label="0.0\n0.7%\n[1.0, 0.0]\nno disease", fillcolor="#e58139"] ;
24 -> 25 ;
26 [label="st_depression <= 0.4\n0.23\n6.7%\n[0.13, 0.87]\ndisease", fillcolor="#57ace9"] ;
24 -> 26 ;
27 [label="chest_pain_type_non-anginal pain <= 0.5\n0.44\n2.7%\n[0.33, 0.67]\ndisease", fillcolor="#9ccef2"] ;
26 -> 27 ;
28 [label="age <= 63.0\n0.32\n2.0%\n[0.2, 0.8]\ndisease", fillcolor="#6ab6ec"] ;
27 -> 28 ;
29 [label="0.0\n1.3%\n[0.0, 1.0]\ndisease", fillcolor="#399de5"] ;
28 -> 29 ;
30 [label="0.0\n0.7%\n[1.0, 0.0]\nno disease", fillcolor="#e58139"] ;
28 -> 30 ;
31 [label="0.0\n0.7%\n[1.0, 0.0]\nno disease", fillcolor="#e58139"] ;
27 -> 31 ;
32 [label="0.0\n4.0%\n[0.0, 1.0]\ndisease", fillcolor="#399de5"] ;
26 -> 32 ;
33 [label="age <= 60.5\n0.44\n1.3%\n[0.67, 0.33]\nno disease", fillcolor="#f2c09c"] ;
23 -> 33 ;
34 [label="0.0\n0.7%\n[0.0, 1.0]\ndisease", fillcolor="#399de5"] ;
33 -> 34 ;
35 [label="0.0\n0.7%\n[1.0, 0.0]\nno disease", fillcolor="#e58139"] ;
33 -> 35 ;
36 [label="resting_blood_pressure <= 106.0\n0.48\n4.7%\n[0.6, 0.4]\nno disease", fillcolor="#f6d5bd"] ;
22 -> 36 ;
37 [label="0.0\n0.7%\n[0.0, 1.0]\ndisease", fillcolor="#399de5"] ;
36 -> 37 ;
38 [label="sex_male <= 0.5\n0.38\n4.0%\n[0.75, 0.25]\nno disease", fillcolor="#eeab7b"] ;
36 -> 38 ;
39 [label="0.0\n1.3%\n[0.0, 1.0]\ndisease", fillcolor="#399de5"] ;
38 -> 39 ;
40 [label="0.0\n2.7%\n[1.0, 0.0]\nno disease", fillcolor="#e58139"] ;
38 -> 40 ;
41 [label="0.0\n2.0%\n[0.0, 1.0]\ndisease", fillcolor="#399de5"] ;
21 -> 41 ;
42 [label="0.0\n2.0%\n[1.0, 0.0]\nno disease", fillcolor="#e58139"] ;
20 -> 42 ;
43 [label="chest_pain_type_atypical angina <= 0.5\n0.5\n17.4%\n[0.54, 0.46]\nno disease", fillcolor="#fbede3"] ;
1 -> 43 ;
44 [label="sex_male <= 0.5\n0.44\n12.1%\n[0.68, 0.32]\nno disease", fillcolor="#f1bd97"] ;
43 -> 44 ;
45 [label="0.0\n0.7%\n[1.0, 0.0]\nno disease", fillcolor="#e58139"] ;
44 -> 45 ;
46 [label="cholesterol <= 244.0\n0.46\n11.4%\n[0.64, 0.36]\nno disease", fillcolor="#f4c8a8"] ;
44 -> 46 ;
47 [label="st_slope_upsloping <= 0.5\n0.49\n6.7%\n[0.43, 0.57]\ndisease", fillcolor="#cee6f8"] ;
46 -> 47 ;
48 [label="st_slope_flat <= 0.5\n0.47\n3.4%\n[0.62, 0.38]\nno disease", fillcolor="#f5cdb0"] ;
47 -> 48 ;
49 [label="0.0\n0.7%\n[1.0, 0.0]\nno disease", fillcolor="#e58139"] ;
48 -> 49 ;
50 [label="max_heart_rate_achieved <= 149.0\n0.49\n2.7%\n[0.57, 0.43]\nno disease", fillcolor="#f8e0ce"] ;
48 -> 50 ;
51 [label="0.0\n0.7%\n[0.0, 1.0]\ndisease", fillcolor="#399de5"] ;
50 -> 51 ;
52 [label="max_heart_rate_achieved <= 159.5\n0.44\n2.0%\n[0.67, 0.33]\nno disease", fillcolor="#f2c09c"] ;
50 -> 52 ;
53 [label="0.0\n0.7%\n[1.0, 0.0]\nno disease", fillcolor="#e58139"] ;
52 -> 53 ;
54 [label="num_major_vessels <= 1.0\n0.44\n1.3%\n[0.33, 0.67]\ndisease", fillcolor="#9ccef2"] ;
52 -> 54 ;
55 [label="0.0\n0.7%\n[0.0, 1.0]\ndisease", fillcolor="#399de5"] ;
54 -> 55 ;
56 [label="0.0\n0.7%\n[1.0, 0.0]\nno disease", fillcolor="#e58139"] ;
54 -> 56 ;
57 [label="max_heart_rate_achieved <= 124.5\n0.28\n3.4%\n[0.17, 0.83]\ndisease", fillcolor="#61b1ea"] ;
47 -> 57 ;
58 [label="0.0\n0.7%\n[1.0, 0.0]\nno disease", fillcolor="#e58139"] ;
57 -> 58 ;
59 [label="0.0\n2.7%\n[0.0, 1.0]\ndisease", fillcolor="#399de5"] ;
57 -> 59 ;
60 [label="st_depression <= 0.85\n0.17\n4.7%\n[0.91, 0.09]\nno disease", fillcolor="#e88e4d"] ;
46 -> 60 ;
61 [label="0.0\n2.0%\n[1.0, 0.0]\nno disease", fillcolor="#e58139"] ;
60 -> 61 ;
62 [label="chest_pain_type_non-anginal pain <= 0.5\n0.32\n2.7%\n[0.8, 0.2]\nno disease", fillcolor="#eca06a"] ;
60 -> 62 ;
63 [label="0.0\n1.3%\n[1.0, 0.0]\nno disease", fillcolor="#e58139"] ;
62 -> 63 ;
64 [label="max_heart_rate_achieved <= 155.0\n0.44\n1.3%\n[0.67, 0.33]\nno disease", fillcolor="#f2c09c"] ;
62 -> 64 ;
65 [label="0.0\n0.7%\n[1.0, 0.0]\nno disease", fillcolor="#e58139"] ;
64 -> 65 ;
66 [label="0.0\n0.7%\n[0.0, 1.0]\ndisease", fillcolor="#399de5"] ;
64 -> 66 ;
67 [label="cholesterol <= 222.0\n0.3\n5.4%\n[0.18, 0.82]\ndisease", fillcolor="#65b3eb"] ;
43 -> 67 ;
68 [label="fasting_blood_sugar_greater than 120 mg/ml <= 0.5\n0.5\n2.7%\n[0.5, 0.5]\nno disease", fillcolor="#ffffff"] ;
67 -> 68 ;
69 [label="0.0\n1.3%\n[1.0, 0.0]\nno disease", fillcolor="#e58139"] ;
68 -> 69 ;
70 [label="0.0\n1.3%\n[0.0, 1.0]\ndisease", fillcolor="#399de5"] ;
68 -> 70 ;
71 [label="0.0\n2.7%\n[0.0, 1.0]\ndisease", fillcolor="#399de5"] ;
67 -> 71 ;
72 [label="cholesterol <= 243.5\n0.3\n30.9%\n[0.82, 0.18]\nno disease", fillcolor="#eb9d66"] ;
0 -> 72 [labeldistance=2.5, labelangle=-45, headlabel="False"] ;
73 [label="max_heart_rate_achieved <= 131.5\n0.42\n13.4%\n[0.71, 0.29]\nno disease", fillcolor="#f0b58b"] ;
72 -> 73 ;
74 [label="0.0\n3.4%\n[1.0, 0.0]\nno disease", fillcolor="#e58139"] ;
73 -> 74 ;
75 [label="num_major_vessels <= 0.5\n0.49\n10.1%\n[0.57, 0.43]\nno disease", fillcolor="#f9e2d1"] ;
73 -> 75 ;
76 [label="fasting_blood_sugar_greater than 120 mg/ml <= 0.5\n0.2\n5.4%\n[0.11, 0.89]\ndisease", fillcolor="#52a9e8"] ;
75 -> 76 ;
77 [label="0.0\n4.0%\n[0.0, 1.0]\ndisease", fillcolor="#399de5"] ;
76 -> 77 ;
78 [label="chest_pain_type_atypical angina <= 0.5\n0.5\n1.3%\n[0.5, 0.5]\nno disease", fillcolor="#ffffff"] ;
76 -> 78 ;
79 [label="0.0\n0.7%\n[1.0, 0.0]\nno disease", fillcolor="#e58139"] ;
78 -> 79 ;
80 [label="0.0\n0.7%\n[0.0, 1.0]\ndisease", fillcolor="#399de5"] ;
78 -> 80 ;
81 [label="st_slope_flat <= 0.5\n0.24\n4.7%\n[0.86, 0.14]\nno disease", fillcolor="#e9965a"] ;
75 -> 81 ;
82 [label="0.0\n2.0%\n[1.0, 0.0]\nno disease", fillcolor="#e58139"] ;
81 -> 82 ;
83 [label="cholesterol <= 207.0\n0.32\n2.7%\n[0.8, 0.2]\nno disease", fillcolor="#eca06a"] ;
81 -> 83 ;
84 [label="0.0\n1.3%\n[1.0, 0.0]\nno disease", fillcolor="#e58139"] ;
83 -> 84 ;
85 [label="cholesterol <= 228.5\n0.44\n1.3%\n[0.33, 0.67]\ndisease", fillcolor="#9ccef2"] ;
83 -> 85 ;
86 [label="0.0\n0.7%\n[0.0, 1.0]\ndisease", fillcolor="#399de5"] ;
85 -> 86 ;
87 [label="0.0\n0.7%\n[1.0, 0.0]\nno disease", fillcolor="#e58139"] ;
85 -> 87 ;
88 [label="st_slope_flat <= 0.5\n0.17\n17.4%\n[0.9, 0.1]\nno disease", fillcolor="#e88e4e"] ;
72 -> 88 ;
89 [label="0.0\n14.1%\n[1.0, 0.0]\nno disease", fillcolor="#e58139"] ;
88 -> 89 ;
90 [label="resting_blood_pressure <= 135.0\n0.44\n3.4%\n[0.33, 0.67]\ndisease", fillcolor="#9ccef2"] ;
88 -> 90 ;
91 [label="chest_pain_type_typical angina <= 0.5\n0.44\n2.0%\n[0.67, 0.33]\nno disease", fillcolor="#f2c09c"] ;
90 -> 91 ;
92 [label="0.0\n1.3%\n[1.0, 0.0]\nno disease", fillcolor="#e58139"] ;
91 -> 92 ;
93 [label="0.0\n0.7%\n[0.0, 1.0]\ndisease", fillcolor="#399de5"] ;
91 -> 93 ;
94 [label="0.0\n1.3%\n[0.0, 1.0]\ndisease", fillcolor="#399de5"] ;
90 -> 94 ;
}